Layer: conv2d
Rounded Weights: [[[[ 0.074 -0.075 -0.131 -0.168  0.074 -0.2   -0.027 -0.121  0.166
    -0.088  0.022  0.215]]

  [[-0.084  0.089 -0.162 -0.154 -0.06  -0.116 -0.125  0.202  0.188
    -0.175 -0.044  0.04 ]]

  [[ 0.035  0.202 -0.132  0.127  0.174 -0.224  0.022  0.251 -0.082
    -0.117 -0.18  -0.089]]]


 [[[ 0.006 -0.097 -0.119 -0.151  0.072 -0.108 -0.027 -0.029 -0.179
    -0.182  0.075  0.212]]

  [[ 0.241  0.206  0.023  0.242 -0.187  0.079 -0.075 -0.061  0.106
    -0.102  0.141  0.1  ]]

  [[ 0.098 -0.109  0.012  0.061  0.004 -0.056 -0.171 -0.045  0.079
    -0.163  0.188 -0.23 ]]]


 [[[ 0.135  0.091  0.166  0.147  0.176  0.151  0.057 -0.087 -0.226
     0.03   0.046 -0.168]]

  [[-0.187 -0.037  0.226 -0.072 -0.244 -0.045  0.102 -0.214 -0.027
    -0.168 -0.001 -0.187]]

  [[-0.154 -0.046  0.108  0.076 -0.021  0.165  0.056  0.085 -0.023
    -0.143  0.202 -0.144]]]]
Rounded Biases: [ 0.002 -0.     0.006  0.009  0.005 -0.017 -0.01  -0.009 -0.009  0.006
  0.002 -0.01 ]

Layer: batch_normalization
Rounded Weights: [0.91  0.851 1.035 0.991 0.895 1.132 0.968 1.104 1.076 1.015 0.871 1.169]
Rounded Biases: [-0.161 -0.255  0.062 -0.029 -0.21   0.086 -0.053 -0.106 -0.138  0.005
 -0.119  0.009]

Layer: conv2d_1
Rounded Weights: [[[[-0.031  0.083 -0.004 ...  0.008  0.047 -0.067]
   [ 0.025  0.052  0.016 ...  0.055 -0.022 -0.019]
   [ 0.012  0.085 -0.018 ... -0.058  0.093 -0.001]
   ...
   [-0.009  0.057 -0.08  ...  0.039 -0.007 -0.037]
   [-0.011  0.04  -0.074 ...  0.    -0.013  0.011]
   [ 0.065 -0.096  0.018 ... -0.083  0.043 -0.055]]

  [[ 0.11   0.004  0.02  ... -0.056 -0.049  0.013]
   [-0.028 -0.045 -0.034 ... -0.019 -0.106  0.003]
   [ 0.074  0.07   0.007 ...  0.03  -0.019  0.046]
   ...
   [-0.01  -0.02  -0.081 ... -0.051  0.011 -0.009]
   [ 0.06  -0.022 -0.006 ...  0.028 -0.031  0.004]
   [ 0.029  0.064 -0.088 ... -0.088 -0.053  0.021]]

  [[-0.044  0.065  0.008 ... -0.086 -0.049  0.051]
   [ 0.041  0.042  0.044 ... -0.089 -0.065 -0.025]
   [ 0.014  0.048  0.032 ...  0.02   0.063  0.075]
   ...
   [-0.032 -0.026 -0.033 ...  0.044 -0.03  -0.131]
   [ 0.018  0.058  0.043 ...  0.032  0.042  0.041]
   [-0.002 -0.005  0.052 ... -0.132  0.061 -0.053]]

  [[ 0.003  0.109 -0.027 ... -0.044 -0.076  0.019]
   [-0.013  0.037 -0.022 ... -0.011  0.071 -0.042]
   [-0.114  0.025  0.082 ... -0.034  0.068  0.09 ]
   ...
   [-0.097  0.038 -0.127 ... -0.009 -0.073 -0.138]
   [-0.061  0.09   0.    ...  0.013 -0.034 -0.005]
   [-0.033  0.005 -0.072 ... -0.059 -0.109  0.056]]

  [[-0.051  0.026 -0.112 ... -0.002  0.087 -0.028]
   [ 0.001  0.088 -0.078 ... -0.076  0.042  0.09 ]
   [-0.093  0.064  0.044 ...  0.051 -0.031  0.018]
   ...
   [ 0.009 -0.029 -0.15  ... -0.12  -0.096 -0.175]
   [ 0.028  0.106 -0.004 ... -0.003 -0.109  0.005]
   [ 0.067 -0.017 -0.193 ... -0.168  0.033  0.044]]

  [[-0.003  0.134 -0.075 ...  0.07  -0.024  0.002]
   [ 0.004  0.106 -0.092 ...  0.049  0.007 -0.024]
   [-0.04   0.042 -0.025 ...  0.054 -0.059  0.052]
   ...
   [-0.094 -0.002 -0.117 ... -0.09  -0.03  -0.089]
   [ 0.062  0.066 -0.033 ...  0.077 -0.052 -0.052]
   [ 0.06   0.051 -0.133 ... -0.146 -0.019  0.071]]]


 [[[ 0.033 -0.007  0.046 ...  0.079  0.064  0.012]
   [ 0.082  0.073 -0.077 ...  0.03   0.001  0.076]
   [-0.003  0.042  0.021 ...  0.045  0.083 -0.002]
   ...
   [ 0.016  0.055 -0.023 ... -0.055 -0.014 -0.134]
   [ 0.004  0.01  -0.075 ...  0.06   0.02  -0.1  ]
   [ 0.004 -0.073 -0.11  ...  0.006 -0.063 -0.003]]

  [[ 0.078 -0.04  -0.035 ...  0.041  0.057  0.107]
   [ 0.006  0.06   0.015 ...  0.019 -0.095  0.094]
   [ 0.061 -0.019 -0.061 ...  0.01  -0.018  0.099]
   ...
   [-0.004  0.005 -0.018 ... -0.019 -0.048 -0.063]
   [-0.036  0.02  -0.036 ...  0.108 -0.007 -0.052]
   [ 0.018 -0.063 -0.059 ... -0.049 -0.119  0.01 ]]

  [[-0.007  0.002  0.023 ...  0.039 -0.003  0.07 ]
   [ 0.057 -0.007  0.014 ... -0.021 -0.024 -0.04 ]
   [ 0.018  0.051  0.014 ... -0.011  0.014  0.068]
   ...
   [ 0.007  0.062  0.034 ... -0.029 -0.115 -0.096]
   [ 0.007 -0.063  0.061 ...  0.037 -0.018 -0.053]
   [ 0.046  0.077  0.041 ... -0.005 -0.06   0.01 ]]

  [[-0.062 -0.013 -0.026 ...  0.023  0.045  0.065]
   [-0.044 -0.01  -0.112 ...  0.066  0.023  0.059]
   [ 0.08  -0.015  0.022 ... -0.029  0.117  0.118]
   ...
   [ 0.021 -0.011  0.005 ... -0.032 -0.029 -0.139]
   [-0.022  0.065  0.051 ...  0.015  0.    -0.019]
   [-0.049 -0.076 -0.118 ...  0.004 -0.019  0.016]]

  [[-0.053  0.119  0.012 ...  0.018 -0.022 -0.015]
   [-0.045  0.036 -0.058 ...  0.032 -0.017 -0.041]
   [-0.057 -0.046  0.012 ...  0.038  0.128 -0.031]
   ...
   [ 0.051 -0.024 -0.08  ... -0.05  -0.021 -0.094]
   [-0.056 -0.053  0.072 ... -0.029 -0.027 -0.022]
   [-0.043  0.005 -0.193 ...  0.041  0.012  0.048]]

  [[-0.105  0.101  0.001 ...  0.109 -0.074 -0.047]
   [-0.036  0.027 -0.08  ...  0.018 -0.082  0.034]
   [-0.047  0.064  0.003 ... -0.027  0.139 -0.06 ]
   ...
   [-0.047  0.019 -0.038 ... -0.15  -0.024  0.043]
   [ 0.02   0.053 -0.062 ...  0.072 -0.036 -0.067]
   [-0.017  0.037 -0.047 ... -0.008 -0.028 -0.003]]]


 [[[-0.072  0.008  0.03  ...  0.108  0.131  0.047]
   [ 0.053 -0.044 -0.035 ... -0.037 -0.043  0.033]
   [ 0.086  0.002 -0.055 ... -0.066  0.004  0.049]
   ...
   [-0.019  0.038 -0.11  ... -0.106 -0.018 -0.093]
   [ 0.071 -0.02  -0.008 ...  0.083  0.07   0.033]
   [-0.111 -0.059  0.    ...  0.024 -0.017 -0.123]]

  [[-0.058  0.008 -0.048 ...  0.112  0.029  0.061]
   [-0.034  0.004 -0.024 ...  0.048  0.011  0.062]
   [-0.005 -0.075 -0.062 ...  0.014  0.092  0.124]
   ...
   [-0.012 -0.039 -0.067 ... -0.127 -0.116 -0.077]
   [ 0.08  -0.025 -0.107 ... -0.054  0.066 -0.032]
   [-0.07  -0.051 -0.012 ...  0.039  0.027  0.014]]

  [[-0.092 -0.005  0.004 ...  0.083  0.081  0.092]
   [-0.004 -0.023  0.013 ...  0.064 -0.02  -0.035]
   [ 0.018  0.043  0.004 ... -0.069  0.113  0.09 ]
   ...
   [-0.019  0.052  0.026 ... -0.    -0.062 -0.089]
   [ 0.054 -0.044 -0.021 ...  0.076  0.018 -0.06 ]
   [-0.24  -0.036 -0.058 ...  0.051  0.036  0.089]]

  [[-0.123  0.018 -0.042 ...  0.077 -0.031 -0.019]
   [-0.104  0.037 -0.036 ...  0.086 -0.04  -0.064]
   [ 0.039  0.042 -0.035 ...  0.008  0.114  0.051]
   ...
   [-0.024  0.02  -0.053 ... -0.098 -0.021 -0.037]
   [ 0.028 -0.089 -0.054 ... -0.044 -0.034 -0.044]
   [-0.117  0.107 -0.087 ...  0.069 -0.01   0.007]]

  [[-0.091  0.04   0.044 ...  0.103 -0.047  0.049]
   [-0.059  0.088 -0.068 ...  0.059 -0.069  0.036]
   [ 0.078  0.015 -0.077 ...  0.044  0.113 -0.055]
   ...
   [ 0.067 -0.035 -0.008 ...  0.007 -0.067 -0.069]
   [-0.001  0.036  0.005 ... -0.013 -0.049  0.013]
   [-0.154  0.122 -0.073 ...  0.041 -0.014 -0.112]]

  [[-0.033  0.076 -0.07  ...  0.048 -0.063 -0.112]
   [-0.004  0.067 -0.02  ...  0.045 -0.019 -0.147]
   [-0.025  0.089  0.008 ...  0.018  0.089 -0.087]
   ...
   [ 0.047  0.022  0.033 ... -0.044 -0.11   0.007]
   [-0.057  0.009  0.029 ...  0.    -0.045 -0.099]
   [-0.004  0.083  0.014 ...  0.068 -0.096 -0.078]]]


 [[[ 0.001  0.032  0.036 ...  0.091  0.147 -0.007]
   [ 0.047  0.071  0.014 ...  0.056 -0.048 -0.042]
   [-0.051 -0.014  0.017 ... -0.026  0.076  0.027]
   ...
   [ 0.029  0.011 -0.019 ...  0.035  0.043 -0.033]
   [ 0.08  -0.071  0.044 ... -0.074 -0.026  0.053]
   [-0.038 -0.146 -0.039 ...  0.008  0.048 -0.053]]

  [[ 0.021 -0.004  0.019 ...  0.025 -0.027 -0.058]
   [-0.013  0.067  0.035 ... -0.062  0.058 -0.092]
   [-0.006  0.054 -0.019 ... -0.058 -0.006 -0.008]
   ...
   [-0.061 -0.066 -0.081 ... -0.041 -0.077 -0.081]
   [ 0.005 -0.051 -0.034 ... -0.091  0.047 -0.011]
   [-0.135  0.007 -0.07  ...  0.018  0.06  -0.025]]

  [[ 0.019  0.01  -0.064 ... -0.046  0.051 -0.01 ]
   [-0.041  0.016  0.032 ...  0.011  0.099  0.019]
   [ 0.004  0.096 -0.076 ... -0.022 -0.022 -0.049]
   ...
   [ 0.048 -0.02   0.019 ... -0.071 -0.087 -0.026]
   [ 0.091 -0.068 -0.026 ... -0.076 -0.041 -0.098]
   [-0.178  0.044 -0.117 ... -0.066 -0.016  0.003]]

  [[-0.057  0.049 -0.12  ...  0.042  0.079 -0.017]
   [-0.011  0.08  -0.054 ... -0.006 -0.088  0.017]
   [-0.016  0.043 -0.052 ... -0.05   0.034 -0.131]
   ...
   [ 0.024 -0.106  0.079 ... -0.062 -0.138 -0.092]
   [ 0.041 -0.033 -0.101 ...  0.017  0.011 -0.077]
   [-0.074  0.07  -0.087 ...  0.009 -0.02  -0.102]]

  [[-0.007 -0.043 -0.008 ... -0.02  -0.014 -0.07 ]
   [-0.068 -0.022  0.045 ...  0.008 -0.041  0.017]
   [ 0.019 -0.02  -0.003 ... -0.079  0.106  0.008]
   ...
   [ 0.098  0.032 -0.015 ...  0.03   0.004  0.043]
   [-0.065  0.038 -0.004 ... -0.066 -0.041 -0.075]
   [-0.034  0.088 -0.002 ... -0.01  -0.133 -0.086]]

  [[ 0.011 -0.001 -0.009 ...  0.029  0.008  0.01 ]
   [-0.073  0.046 -0.091 ... -0.051 -0.033 -0.121]
   [-0.05  -0.09   0.064 ... -0.096  0.12  -0.025]
   ...
   [ 0.088  0.055  0.056 ...  0.055 -0.07   0.005]
   [-0.053  0.031  0.05  ... -0.107 -0.077  0.04 ]
   [ 0.074 -0.047  0.041 ...  0.087 -0.056  0.008]]]


 [[[ 0.021  0.019 -0.077 ... -0.099  0.041 -0.007]
   [ 0.039  0.037 -0.055 ... -0.071  0.063 -0.071]
   [-0.087 -0.004 -0.081 ... -0.106  0.039 -0.13 ]
   ...
   [-0.062  0.001 -0.092 ... -0.012 -0.023  0.004]
   [ 0.01  -0.047 -0.068 ... -0.018 -0.08  -0.049]
   [-0.072 -0.173 -0.01  ...  0.003  0.008  0.014]]

  [[-0.03   0.003 -0.073 ... -0.088 -0.039  0.041]
   [ 0.049 -0.004 -0.001 ... -0.082  0.026 -0.057]
   [-0.069  0.111 -0.083 ...  0.005  0.034 -0.095]
   ...
   [-0.013 -0.055 -0.033 ... -0.035 -0.018 -0.027]
   [ 0.022  0.02  -0.066 ...  0.041  0.046 -0.12 ]
   [ 0.044  0.037  0.06  ... -0.055 -0.067 -0.074]]

  [[ 0.04  -0.033  0.015 ... -0.014  0.062  0.05 ]
   [ 0.004  0.025 -0.044 ...  0.053  0.084  0.048]
   [-0.073  0.042 -0.027 ...  0.054 -0.046 -0.013]
   ...
   [-0.033 -0.022 -0.04  ...  0.048  0.001 -0.041]
   [ 0.032  0.039 -0.064 ... -0.005  0.019 -0.011]
   [ 0.001  0.037 -0.012 ... -0.023 -0.13   0.01 ]]

  [[-0.007  0.021  0.055 ...  0.033 -0.063 -0.096]
   [-0.04   0.027  0.047 ...  0.073 -0.053  0.002]
   [-0.092  0.071  0.067 ...  0.05   0.036 -0.001]
   ...
   [-0.    -0.078 -0.005 ...  0.084 -0.088 -0.022]
   [ 0.066 -0.055 -0.003 ... -0.029  0.053 -0.077]
   [-0.063  0.047 -0.087 ...  0.067 -0.153 -0.044]]

  [[ 0.035  0.052 -0.033 ...  0.001  0.026 -0.051]
   [-0.044  0.086  0.054 ... -0.037 -0.006 -0.019]
   [-0.021  0.052  0.104 ...  0.02   0.021  0.085]
   ...
   [ 0.044 -0.063  0.009 ... -0.053 -0.024 -0.069]
   [ 0.09  -0.079  0.044 ... -0.075  0.051 -0.006]
   [-0.035  0.042 -0.004 ...  0.061 -0.188  0.078]]

  [[ 0.002  0.043  0.014 ... -0.048  0.02   0.029]
   [-0.018  0.051  0.091 ... -0.04  -0.043  0.067]
   [ 0.022 -0.016  0.    ...  0.095  0.072  0.023]
   ...
   [ 0.012  0.053 -0.11  ...  0.005 -0.173 -0.1  ]
   [-0.022 -0.108 -0.074 ... -0.01   0.052  0.006]
   [ 0.006 -0.069 -0.035 ...  0.019 -0.097  0.123]]]


 [[[ 0.061 -0.053  0.014 ...  0.011  0.057  0.035]
   [ 0.032  0.018 -0.049 ... -0.1   -0.057  0.005]
   [-0.014  0.067 -0.03  ... -0.058 -0.055 -0.08 ]
   ...
   [-0.06  -0.094 -0.143 ... -0.017  0.012  0.017]
   [-0.016  0.107  0.064 ... -0.089 -0.083 -0.034]
   [ 0.052 -0.08  -0.111 ... -0.1    0.009 -0.02 ]]

  [[ 0.051 -0.01  -0.018 ... -0.011  0.032  0.013]
   [ 0.009  0.06   0.022 ... -0.064  0.053  0.038]
   [-0.031  0.045 -0.028 ... -0.026 -0.021  0.039]
   ...
   [-0.108 -0.011 -0.162 ... -0.01   0.084  0.05 ]
   [ 0.063  0.039 -0.035 ...  0.002 -0.021 -0.014]
   [ 0.074 -0.094  0.019 ... -0.097 -0.034 -0.02 ]]

  [[-0.059  0.034 -0.008 ... -0.035 -0.041  0.008]
   [-0.028 -0.022  0.064 ... -0.071 -0.035 -0.114]
   [-0.074  0.108  0.04  ...  0.075 -0.065  0.052]
   ...
   [-0.118 -0.089 -0.034 ... -0.107 -0.02  -0.005]
   [ 0.058  0.004  0.031 ... -0.026  0.022 -0.047]
   [-0.015 -0.029 -0.036 ...  0.036 -0.077 -0.01 ]]

  [[ 0.067 -0.03   0.017 ... -0.059  0.021 -0.071]
   [ 0.055  0.013  0.061 ... -0.016 -0.089 -0.014]
   [-0.044  0.069  0.05  ...  0.059 -0.093  0.05 ]
   ...
   [ 0.013 -0.061 -0.016 ... -0.035  0.01   0.042]
   [ 0.025 -0.056  0.007 ... -0.055 -0.019 -0.023]
   [-0.009  0.027  0.003 ...  0.044 -0.187  0.063]]

  [[ 0.028 -0.007  0.011 ...  0.071  0.024 -0.03 ]
   [ 0.045  0.016 -0.021 ...  0.011 -0.017  0.067]
   [-0.001  0.039 -0.003 ...  0.076 -0.038  0.08 ]
   ...
   [-0.013  0.028  0.005 ... -0.044  0.014 -0.079]
   [ 0.093 -0.006  0.026 ... -0.039  0.069 -0.045]
   [-0.015  0.075  0.12  ...  0.071 -0.07   0.043]]

  [[ 0.008 -0.056  0.072 ... -0.081 -0.01   0.097]
   [-0.023 -0.121  0.04  ... -0.02  -0.073  0.111]
   [-0.061  0.062 -0.038 ...  0.013  0.039  0.042]
   ...
   [ 0.064  0.03  -0.015 ...  0.008 -0.124 -0.123]
   [ 0.047 -0.057 -0.026 ...  0.005  0.004  0.036]
   [ 0.025  0.06   0.112 ...  0.076 -0.047  0.212]]]]
Rounded Biases: [-0.001  0.    -0.    -0.     0.    -0.     0.001  0.    -0.    -0.
  0.    -0.     0.    -0.001  0.001  0.001 -0.     0.     0.001 -0.
  0.    -0.001 -0.001 -0.   ]

Layer: batch_normalization_1
Rounded Weights: [1.014 0.73  1.027 1.197 0.943 1.092 0.907 1.06  1.038 0.995 1.001 0.919
 1.04  0.979 1.026 0.994 0.918 1.06  1.055 0.879 1.032 1.015 0.897 0.994]
Rounded Biases: [-0.098 -0.316 -0.153 -0.044 -0.102 -0.129 -0.185 -0.188 -0.101 -0.066
 -0.083 -0.062 -0.148 -0.145 -0.118 -0.218 -0.165 -0.07  -0.088 -0.092
 -0.131 -0.165 -0.18  -0.088]

Layer: conv2d_2
Rounded Weights: [[[[-0.004  0.031  0.052 ...  0.01   0.035 -0.066]
   [-0.003  0.059 -0.02  ... -0.056 -0.031 -0.094]
   [-0.019 -0.039  0.002 ...  0.006 -0.066 -0.051]
   ...
   [-0.006 -0.002 -0.073 ... -0.012 -0.083 -0.014]
   [-0.067 -0.061 -0.072 ...  0.057  0.086 -0.007]
   [-0.016  0.035  0.093 ...  0.015 -0.002 -0.012]]

  [[-0.    -0.099  0.028 ... -0.051  0.005 -0.005]
   [-0.01   0.036  0.042 ... -0.025 -0.079 -0.095]
   [-0.026 -0.098 -0.076 ...  0.054  0.096 -0.066]
   ...
   [-0.029 -0.009 -0.034 ... -0.006 -0.053 -0.038]
   [ 0.06  -0.005 -0.07  ... -0.049  0.002  0.058]
   [-0.044 -0.018 -0.018 ... -0.018 -0.089 -0.046]]

  [[ 0.09  -0.107 -0.022 ...  0.039 -0.04   0.011]
   [ 0.002  0.007  0.025 ...  0.043 -0.064 -0.008]
   [-0.07  -0.092  0.029 ...  0.051  0.051  0.146]
   ...
   [ 0.074 -0.055 -0.069 ... -0.057 -0.122  0.02 ]
   [ 0.004 -0.053 -0.025 ... -0.053 -0.03   0.1  ]
   [ 0.027 -0.013 -0.087 ... -0.027 -0.035 -0.079]]

  [[ 0.094 -0.091 -0.061 ... -0.029 -0.044 -0.006]
   [-0.025 -0.052  0.068 ... -0.006  0.042  0.044]
   [-0.043 -0.004 -0.037 ...  0.03  -0.07  -0.048]
   ...
   [ 0.072 -0.082 -0.025 ...  0.041 -0.022  0.069]
   [ 0.035 -0.055  0.008 ... -0.021  0.004  0.083]
   [ 0.063 -0.032 -0.019 ...  0.01  -0.049  0.011]]

  [[ 0.015 -0.001 -0.1   ...  0.036  0.018  0.03 ]
   [-0.045  0.051 -0.068 ... -0.015 -0.005  0.065]
   [-0.009 -0.012 -0.021 ...  0.01  -0.036  0.102]
   ...
   [ 0.009 -0.087 -0.042 ... -0.076  0.053 -0.025]
   [ 0.053  0.058 -0.077 ...  0.017  0.     0.011]
   [ 0.031 -0.065 -0.015 ...  0.023 -0.03  -0.065]]

  [[ 0.08   0.046 -0.042 ...  0.076  0.062 -0.018]
   [-0.091 -0.     0.003 ...  0.043 -0.102  0.023]
   [ 0.021  0.006 -0.056 ...  0.008  0.031  0.058]
   ...
   [-0.055  0.056  0.036 ...  0.003  0.047 -0.008]
   [ 0.091  0.036 -0.019 ... -0.025  0.023  0.053]
   [ 0.022  0.008  0.005 ...  0.053  0.108  0.024]]]


 [[[ 0.02  -0.01   0.012 ...  0.113  0.099  0.088]
   [-0.05  -0.02   0.019 ... -0.05   0.001 -0.076]
   [-0.064 -0.048 -0.03  ... -0.021 -0.006  0.038]
   ...
   [ 0.095  0.053 -0.162 ...  0.025  0.098  0.004]
   [ 0.012  0.015  0.013 ...  0.052 -0.012  0.029]
   [-0.044  0.046  0.015 ...  0.052 -0.005 -0.058]]

  [[ 0.033 -0.031 -0.059 ...  0.053  0.068 -0.001]
   [ 0.042 -0.071 -0.038 ... -0.032  0.006 -0.051]
   [-0.012 -0.058  0.019 ... -0.011 -0.01   0.099]
   ...
   [ 0.072 -0.036 -0.045 ...  0.057  0.048 -0.032]
   [-0.039  0.058 -0.056 ... -0.068 -0.016  0.096]
   [ 0.021 -0.041  0.016 ... -0.055 -0.042 -0.068]]

  [[-0.025 -0.015  0.061 ... -0.03   0.02   0.033]
   [ 0.025 -0.04  -0.096 ...  0.009 -0.045  0.03 ]
   [ 0.064  0.046 -0.003 ...  0.031  0.055  0.111]
   ...
   [-0.002  0.035 -0.104 ...  0.047 -0.02  -0.069]
   [ 0.036  0.034  0.036 ... -0.085  0.002  0.065]
   [-0.026  0.015  0.004 ... -0.014 -0.025  0.069]]

  [[-0.003  0.013 -0.026 ... -0.028  0.041 -0.01 ]
   [-0.015 -0.015 -0.012 ...  0.02  -0.056 -0.094]
   [-0.039  0.022 -0.037 ...  0.101 -0.072  0.039]
   ...
   [ 0.024 -0.024 -0.141 ...  0.004  0.017 -0.007]
   [ 0.046 -0.034 -0.01  ... -0.058  0.016  0.014]
   [-0.035  0.005 -0.02  ... -0.003 -0.08   0.002]]

  [[ 0.058 -0.07  -0.015 ... -0.009  0.06   0.007]
   [-0.026  0.056 -0.015 ...  0.01  -0.052  0.017]
   [ 0.026  0.072  0.009 ... -0.007  0.089  0.128]
   ...
   [-0.022  0.011 -0.081 ... -0.029 -0.037 -0.129]
   [ 0.077  0.05   0.025 ... -0.    -0.061  0.05 ]
   [ 0.032  0.01   0.028 ... -0.09   0.032 -0.068]]

  [[-0.009  0.125 -0.057 ... -0.039  0.037 -0.109]
   [-0.055 -0.096 -0.071 ...  0.055 -0.02   0.036]
   [-0.071  0.1    0.009 ... -0.087 -0.009  0.001]
   ...
   [-0.014 -0.004  0.043 ...  0.048  0.082 -0.021]
   [ 0.054  0.065 -0.004 ...  0.03  -0.038  0.035]
   [-0.009  0.045  0.015 ... -0.019  0.002  0.094]]]


 [[[-0.053 -0.014 -0.105 ...  0.048  0.06   0.035]
   [-0.07  -0.063 -0.006 ... -0.008 -0.033 -0.048]
   [-0.005  0.027 -0.039 ...  0.056  0.016  0.099]
   ...
   [-0.046  0.068 -0.003 ...  0.066  0.023  0.056]
   [ 0.017 -0.073 -0.097 ...  0.034  0.022 -0.004]
   [-0.058 -0.006  0.065 ...  0.046 -0.024  0.049]]

  [[ 0.037  0.036 -0.017 ...  0.024  0.075  0.06 ]
   [-0.001 -0.093  0.02  ... -0.036 -0.044 -0.08 ]
   [ 0.052 -0.028 -0.015 ... -0.021 -0.083  0.116]
   ...
   [ 0.029  0.01  -0.034 ...  0.042 -0.006 -0.022]
   [-0.041  0.032 -0.054 ...  0.054  0.002  0.088]
   [-0.031  0.06  -0.108 ... -0.031  0.047  0.099]]

  [[-0.009  0.028 -0.015 ... -0.034  0.002  0.006]
   [-0.014 -0.037  0.038 ... -0.03  -0.073 -0.005]
   [-0.016 -0.011 -0.002 ...  0.034 -0.087  0.076]
   ...
   [-0.018 -0.043  0.026 ... -0.056  0.045 -0.015]
   [ 0.025  0.007 -0.031 ... -0.064 -0.008  0.058]
   [ 0.024 -0.032 -0.044 ... -0.05   0.053 -0.017]]

  [[ 0.054  0.016 -0.055 ...  0.012 -0.054 -0.017]
   [-0.001 -0.005  0.004 ...  0.034  0.053 -0.044]
   [ 0.033 -0.051  0.026 ... -0.069 -0.073  0.016]
   ...
   [-0.031  0.017 -0.001 ...  0.007 -0.047 -0.125]
   [ 0.034 -0.032  0.059 ... -0.074 -0.012  0.019]
   [-0.034  0.005  0.03  ... -0.094  0.048  0.03 ]]

  [[ 0.102 -0.027 -0.037 ... -0.042  0.018  0.005]
   [ 0.024  0.014 -0.006 ... -0.038  0.022 -0.014]
   [-0.035  0.077  0.031 ...  0.041  0.008  0.006]
   ...
   [-0.06  -0.03   0.012 ...  0.024  0.014  0.019]
   [-0.06  -0.024  0.033 ... -0.047 -0.038  0.066]
   [-0.093  0.034 -0.026 ...  0.013  0.027 -0.037]]

  [[ 0.037 -0.086 -0.003 ... -0.098  0.001  0.004]
   [-0.069 -0.053  0.014 ...  0.004 -0.012 -0.014]
   [ 0.085  0.051  0.022 ...  0.001  0.028 -0.007]
   ...
   [-0.066  0.037 -0.073 ...  0.035  0.065 -0.078]
   [-0.006  0.001  0.001 ...  0.02  -0.12  -0.044]
   [-0.002  0.026 -0.04  ... -0.017  0.063  0.06 ]]]


 [[[-0.013 -0.095 -0.102 ...  0.105  0.03  -0.   ]
   [-0.11   0.003 -0.017 ... -0.048 -0.043 -0.067]
   [ 0.045  0.101  0.027 ...  0.034  0.014  0.071]
   ...
   [ 0.02  -0.064  0.006 ... -0.009  0.032  0.079]
   [-0.069 -0.052 -0.083 ...  0.082 -0.123  0.09 ]
   [-0.053  0.076 -0.054 ...  0.016 -0.051  0.037]]

  [[-0.036  0.037 -0.112 ...  0.02  -0.106  0.06 ]
   [-0.004 -0.08  -0.001 ... -0.046 -0.007 -0.025]
   [-0.019 -0.025 -0.102 ...  0.005 -0.09  -0.001]
   ...
   [ 0.077  0.014 -0.032 ... -0.048  0.093  0.054]
   [-0.013 -0.028 -0.052 ...  0.05  -0.079  0.101]
   [ 0.053 -0.122 -0.071 ...  0.037  0.004  0.117]]

  [[-0.043 -0.029  0.021 ... -0.006 -0.105  0.01 ]
   [ 0.051 -0.046  0.023 ...  0.029  0.103  0.018]
   [ 0.04   0.054  0.007 ... -0.017 -0.029  0.067]
   ...
   [ 0.063  0.063  0.012 ... -0.048  0.023  0.002]
   [ 0.032 -0.05   0.03  ... -0.057 -0.062  0.045]
   [ 0.017 -0.008  0.035 ... -0.074  0.048  0.023]]

  [[ 0.    -0.101  0.044 ... -0.031 -0.082 -0.119]
   [-0.016 -0.045  0.016 ...  0.034  0.061 -0.033]
   [ 0.052 -0.017  0.017 ...  0.023 -0.086  0.071]
   ...
   [-0.044 -0.004 -0.071 ... -0.007 -0.017  0.06 ]
   [-0.017  0.028 -0.038 ... -0.048 -0.012  0.103]
   [ 0.044 -0.035 -0.007 ...  0.004 -0.035  0.181]]

  [[ 0.028 -0.006  0.014 ... -0.111 -0.091  0.012]
   [-0.034  0.012 -0.035 ... -0.042  0.041 -0.082]
   [-0.113  0.085 -0.006 ... -0.078  0.046  0.007]
   ...
   [-0.092  0.041 -0.105 ... -0.075  0.022 -0.069]
   [-0.097 -0.146  0.012 ...  0.034 -0.14   0.087]
   [-0.039  0.071 -0.018 ...  0.031  0.051  0.067]]

  [[ 0.023 -0.05  -0.075 ... -0.106 -0.104 -0.015]
   [-0.005  0.112  0.017 ... -0.023 -0.082 -0.031]
   [-0.079 -0.005  0.039 ... -0.088 -0.089  0.031]
   ...
   [-0.095  0.014 -0.08  ... -0.008  0.041 -0.11 ]
   [-0.122 -0.028 -0.039 ... -0.104 -0.081 -0.019]
   [-0.081 -0.038 -0.056 ... -0.024  0.012  0.067]]]


 [[[ 0.07  -0.024 -0.056 ...  0.092 -0.069 -0.004]
   [-0.065  0.037  0.024 ... -0.051 -0.043  0.   ]
   [-0.006  0.016  0.062 ... -0.022 -0.028  0.077]
   ...
   [ 0.042 -0.067 -0.095 ... -0.093 -0.107 -0.024]
   [-0.029 -0.091 -0.051 ... -0.    -0.131 -0.02 ]
   [-0.045 -0.012 -0.052 ... -0.035 -0.041  0.02 ]]

  [[ 0.059 -0.083 -0.137 ...  0.063 -0.087 -0.101]
   [-0.038  0.01   0.026 ... -0.012  0.025  0.034]
   [ 0.022  0.012  0.003 ... -0.027  0.037 -0.015]
   ...
   [ 0.044  0.006 -0.12  ... -0.065 -0.115  0.009]
   [ 0.01  -0.04  -0.018 ... -0.075 -0.023  0.026]
   [ 0.074 -0.098 -0.01  ... -0.044 -0.102  0.063]]

  [[-0.047 -0.088  0.117 ...  0.022 -0.026 -0.074]
   [ 0.053 -0.015 -0.006 ...  0.031 -0.02   0.049]
   [-0.001  0.02   0.009 ... -0.016 -0.019  0.056]
   ...
   [ 0.125  0.005  0.009 ... -0.168 -0.094  0.011]
   [-0.041  0.026 -0.005 ...  0.021 -0.088 -0.027]
   [ 0.124 -0.02  -0.003 ... -0.094 -0.03   0.057]]

  [[ 0.025 -0.004  0.033 ...  0.051 -0.058 -0.058]
   [ 0.096 -0.015  0.033 ...  0.025  0.014  0.047]
   [-0.032 -0.04  -0.067 ... -0.094 -0.033  0.041]
   ...
   [ 0.02  -0.032 -0.057 ... -0.107 -0.051 -0.087]
   [ 0.028 -0.037  0.033 ... -0.016 -0.039  0.049]
   [ 0.05   0.019 -0.039 ... -0.033 -0.034  0.014]]

  [[-0.02  -0.064  0.045 ...  0.066 -0.015  0.011]
   [-0.009  0.02  -0.031 ... -0.011 -0.087  0.029]
   [-0.055 -0.108  0.041 ... -0.107 -0.012  0.044]
   ...
   [-0.053 -0.03  -0.052 ... -0.069  0.06  -0.1  ]
   [-0.058  0.016  0.006 ...  0.064  0.005  0.015]
   [ 0.017  0.014 -0.034 ... -0.069  0.025  0.   ]]

  [[-0.041 -0.     0.009 ...  0.083 -0.026 -0.039]
   [ 0.046 -0.017  0.001 ... -0.022 -0.041 -0.017]
   [ 0.03   0.074  0.094 ... -0.058 -0.039 -0.054]
   ...
   [-0.122  0.002 -0.039 ... -0.123  0.013 -0.072]
   [-0.15  -0.036 -0.007 ...  0.001 -0.037 -0.032]
   [-0.027  0.077 -0.017 ... -0.104  0.077 -0.006]]]


 [[[ 0.031 -0.104 -0.037 ... -0.025  0.008 -0.052]
   [-0.105  0.076  0.011 ...  0.015 -0.013 -0.007]
   [ 0.049  0.001  0.052 ... -0.003 -0.106  0.075]
   ...
   [ 0.011 -0.14  -0.063 ... -0.035 -0.119 -0.014]
   [-0.013 -0.015  0.013 ... -0.002  0.048  0.043]
   [-0.072 -0.032  0.041 ... -0.046 -0.079 -0.029]]

  [[ 0.039 -0.119  0.018 ... -0.065  0.068  0.048]
   [-0.065  0.03  -0.027 ...  0.033 -0.018  0.087]
   [-0.019  0.048  0.029 ... -0.01  -0.093  0.042]
   ...
   [ 0.141 -0.056 -0.06  ... -0.051 -0.054 -0.042]
   [-0.043  0.001 -0.009 ...  0.027 -0.018  0.064]
   [-0.023  0.045 -0.008 ... -0.076 -0.085 -0.008]]

  [[-0.027 -0.061  0.049 ...  0.082  0.032 -0.067]
   [-0.025 -0.009  0.064 ... -0.022  0.008  0.042]
   [-0.014  0.003  0.04  ...  0.001  0.002 -0.002]
   ...
   [ 0.027  0.025  0.057 ...  0.024 -0.054  0.025]
   [-0.114  0.04  -0.037 ...  0.057 -0.073  0.017]
   [ 0.089  0.044  0.051 ... -0.063 -0.139  0.062]]

  [[-0.084 -0.063  0.018 ...  0.08  -0.071 -0.08 ]
   [ 0.087 -0.073  0.014 ... -0.007 -0.004 -0.046]
   [ 0.007  0.005 -0.018 ... -0.048 -0.062 -0.01 ]
   ...
   [-0.055 -0.074  0.043 ... -0.047 -0.086  0.051]
   [-0.105  0.058 -0.003 ...  0.05  -0.043  0.051]
   [ 0.082 -0.025 -0.028 ...  0.017 -0.12   0.062]]

  [[-0.079 -0.053 -0.052 ...  0.038  0.092 -0.008]
   [-0.039 -0.061 -0.034 ... -0.032 -0.124 -0.002]
   [ 0.019 -0.03  -0.054 ...  0.056  0.02  -0.054]
   ...
   [-0.002 -0.031  0.076 ...  0.036  0.014 -0.031]
   [ 0.067  0.027  0.03  ...  0.02   0.069  0.073]
   [-0.066  0.067  0.072 ...  0.002 -0.004 -0.023]]

  [[ 0.05   0.023 -0.045 ...  0.02   0.049  0.053]
   [ 0.078  0.026  0.004 ...  0.027 -0.103 -0.017]
   [-0.138 -0.041  0.032 ... -0.052 -0.099 -0.051]
   ...
   [-0.063 -0.003  0.01  ...  0.03   0.032 -0.073]
   [-0.017  0.046 -0.021 ... -0.018  0.047  0.081]
   [ 0.003 -0.083  0.035 ...  0.029  0.015  0.085]]]]
Rounded Biases: [ 0.    -0.     0.    -0.001  0.     0.     0.     0.    -0.001 -0.
  0.     0.     0.     0.     0.    -0.     0.    -0.001 -0.001 -0.001
  0.001 -0.    -0.    -0.    -0.     0.    -0.    -0.     0.001 -0.
 -0.001 -0.001]

Layer: batch_normalization_2
Rounded Weights: [0.918 0.952 0.996 0.878 0.943 1.002 1.003 0.943 0.964 1.122 0.993 1.093
 1.15  0.972 1.013 0.895 0.943 0.994 0.931 0.883 1.055 0.95  0.91  0.878
 0.901 1.185 0.992 1.099 0.992 0.983 0.957 1.005]
Rounded Biases: [-0.168 -0.161 -0.117 -0.293 -0.133 -0.217 -0.11  -0.255 -0.196 -0.111
 -0.175 -0.1   -0.154 -0.082 -0.179 -0.209 -0.125 -0.188 -0.177 -0.2
 -0.165 -0.178 -0.222 -0.221 -0.219 -0.017 -0.264 -0.172 -0.213 -0.138
 -0.158 -0.16 ]

Layer: dense
Rounded Weights: [[ 0.054  0.037  0.002 ... -0.012 -0.053 -0.017]
 [ 0.062  0.051  0.006 ...  0.007  0.024 -0.055]
 [ 0.056  0.041  0.053 ...  0.053  0.017  0.039]
 ...
 [ 0.028 -0.043  0.053 ... -0.01   0.042  0.01 ]
 [ 0.064  0.002 -0.028 ... -0.003  0.011 -0.029]
 [-0.082  0.085  0.021 ... -0.074 -0.044  0.004]]
Rounded Biases: [-0.  0. -0. -0.  0. -0. -0. -0. -0. -0.  0. -0.  0. -0.  0. -0. -0.  0.
 -0. -0. -0.  0. -0. -0.  0. -0.  0. -0.  0.  0.  0.  0. -0. -0. -0. -0.
  0.  0.  0. -0.  0.  0.  0.  0. -0.  0.  0.  0. -0.  0.  0.  0. -0. -0.
 -0.  0.  0.  0. -0. -0.  0. -0. -0. -0. -0. -0.  0. -0. -0. -0. -0. -0.
  0. -0. -0. -0.  0.  0. -0. -0. -0. -0.  0.  0.  0.  0. -0.  0. -0.  0.
 -0. -0.  0. -0.  0. -0. -0.  0.  0. -0.  0. -0. -0. -0. -0.  0. -0.  0.
  0. -0. -0. -0.  0.  0.  0. -0. -0.  0.  0.  0. -0. -0.  0. -0. -0. -0.
 -0.  0. -0.  0.  0.  0.  0.  0.  0. -0.  0.  0.  0.  0.  0.  0. -0.  0.
  0. -0.  0.  0. -0.  0.  0. -0.  0. -0.  0. -0. -0.  0.  0. -0. -0.  0.
 -0. -0.  0. -0.  0.  0.  0. -0. -0. -0.  0. -0. -0. -0. -0. -0. -0. -0.
 -0. -0. -0.  0. -0. -0. -0. -0. -0.  0.  0.  0.  0.  0. -0. -0.  0.  0.
 -0.  0.]

Layer: batch_normalization_3
Rounded Weights: [1.229 1.146 1.146 1.113 1.264 1.125 1.194 1.25  1.113 1.165 1.263 1.192
 1.272 1.12  1.284 1.114 1.226 1.196 1.183 1.261 1.243 1.233 1.247 1.179
 1.147 1.148 1.165 1.177 1.188 1.164 1.256 1.103 1.103 1.223 1.207 1.113
 1.169 1.116 1.177 1.191 1.224 1.318 1.181 1.274 1.145 1.174 1.248 1.191
 1.192 1.189 1.207 1.228 1.208 1.17  1.205 1.202 1.335 1.205 1.192 1.266
 1.13  1.207 1.238 1.185 1.27  1.136 1.302 1.146 1.188 1.204 1.141 1.133
 1.18  1.184 1.16  1.196 1.24  1.214 1.131 1.182 1.174 1.192 1.176 1.179
 1.199 1.264 1.179 1.193 1.139 1.218 1.209 1.167 1.209 1.209 1.13  1.189
 1.243 1.197 1.122 1.225 1.199 1.16  1.29  1.167 1.267 1.101 1.185 1.284
 1.219 1.15  1.36  1.277 1.111 1.235 1.234 1.179 1.16  1.159 1.236 1.206
 1.165 1.192 1.14  1.185 1.143 1.184 1.195 1.249 1.218 1.207 1.175 1.137
 1.135 1.135 1.114 1.229 1.161 1.143 1.235 1.171 1.128 1.189 1.227 1.305
 1.146 1.17  1.222 1.142 1.239 1.121 1.141 1.253 1.239 1.168 1.173 1.203
 1.153 1.116 1.041 1.101 1.164 1.135 1.166 1.237 1.218 1.125 1.093 1.149
 1.218 1.173 1.137 1.244 1.191 1.183 1.163 1.155 1.222 1.182 1.217 1.166
 1.197 1.131 1.208 1.15  1.199 1.096 1.128 1.187 1.194 1.152 1.241 1.137
 1.055 1.253 1.224 1.178 1.228 1.167 1.146 1.172]
Rounded Biases: [ 0.066  0.014  0.007 -0.045  0.03   0.012  0.054  0.083 -0.008  0.064
  0.088 -0.002  0.098 -0.021  0.107  0.05   0.06   0.095  0.064  0.047
  0.092  0.096  0.062  0.044  0.08   0.029  0.037  0.018  0.017  0.046
  0.059 -0.044 -0.019  0.067  0.048 -0.02   0.024 -0.031  0.088  0.024
  0.089  0.091  0.061  0.038  0.036  0.093  0.077  0.024  0.038  0.027
  0.009  0.077  0.084  0.039  0.051 -0.     0.15   0.017  0.045  0.059
 -0.059  0.018  0.03   0.081  0.087  0.024  0.099  0.001  0.05   0.048
 -0.013 -0.026  0.052  0.029  0.008 -0.018  0.064  0.046  0.012  0.035
 -0.072  0.008  0.016  0.014  0.031  0.098  0.016  0.002  0.033  0.036
  0.117  0.055 -0.009  0.113  0.01   0.034  0.008 -0.005 -0.034  0.094
  0.038  0.025  0.092  0.051  0.053 -0.109  0.012  0.084  0.071  0.006
  0.139  0.066 -0.039  0.029  0.077  0.026  0.072  0.069  0.119  0.026
  0.031  0.051 -0.007  0.023  0.055  0.024  0.003  0.127  0.067  0.061
  0.124 -0.007 -0.016  0.071 -0.025  0.019  0.077  0.014  0.116 -0.017
 -0.054  0.05   0.13   0.095  0.056  0.084  0.112 -0.002  0.079  0.019
  0.017  0.06   0.088  0.021  0.012  0.07  -0.006 -0.021 -0.061  0.007
 -0.004  0.012  0.031  0.102  0.066 -0.017 -0.035  0.002  0.035  0.004
 -0.002  0.142  0.046  0.055  0.035  0.026  0.082  0.03   0.02  -0.005
  0.054  0.002  0.069 -0.018  0.009 -0.06  -0.012  0.101  0.033  0.029
  0.102  0.038 -0.069  0.095 -0.027  0.021  0.03   0.052  0.026  0.001]

Layer: dense_1
Rounded Weights: [[-0.274  0.105 -0.334 ... -0.272  0.164  0.051]
 [ 0.026 -0.262  0.028 ... -0.287  0.127 -0.259]
 [ 0.072 -0.26   0.143 ... -0.252 -0.192  0.141]
 ...
 [-0.283  0.039  0.199 ...  0.036 -0.116 -0.272]
 [ 0.134 -0.085  0.107 ... -0.255  0.085  0.177]
 [-0.08   0.146 -0.222 ... -0.168 -0.142 -0.051]]
Rounded Biases: [-0.02   0.035  0.02  -0.009 -0.002 -0.023 -0.02   0.016  0.004  0.001]

